0.20355432 -0.03677091 0.1756762 -0.055796713 -0.11702337 -0.07636236 -0.11147471 -0.13366038 0.14586423 -0.021727622 0.15676308 0.021093689 -0.0683584 -0.03202172 -0.18369415 -0.20400044 -0.07234505 0.18318069 -0.05233764 -0.07687413 -0.10520516 0.137241 -0.02290568 0.024317715 0.1855077 -0.11912232 0.088980384 0.26497063 0.1253881 0.22617489 -0.14442125 0.19957016 0.0879472 0.18326345 0.1597685 0.26074654 0.18733709 0.062960625 -0.027776953 -0.022442868 -0.014135462 -0.1318971 0.015309711 0.021915125 0.06105256 0.21128224 -0.14773735 -0.0066230395 0.121576235 -0.11453282 -0.16125163 0.18495917 0.13416332 0.21265855 0.030646535 0.07350511 0.12936157 0.24765903 -0.06270243 0.08506927 0.002202931 0.049779586 0.15536925 0.15177813 -0.03267345 0.08457753 -0.11412925 0.1965421 0.05256916 0.05050233 0.18144347 -0.12517317 0.23162335 -0.12853654 0.11438543 -0.067447126 -0.1452079 0.18275005 0.11491449 0.08866032 -0.021445485 0.018784156 -0.07428654 -0.08891271 0.022529261 -0.06686827 0.26224652 0.18084534 0.029202333 -0.12304632 0.12079848 0.1757935 0.120275214 0.18279542 -0.117285304 0.11415349 0.10321621 0.22915977 -0.08745749 0.14886716 -0.14388077 -0.01397347 0.18111242 0.15633331 0.12945373 -0.12159088 0.008508161 0.13480918 0.1492041 0.01344512 -0.09387661 -0.057612605 -0.13737461 0.26946577 0.20283931 -0.10388618 -0.15914878 0.09481436 0.16122028 0.09076663 -0.074397355 -0.021642 -0.052970964 0.18008572 -0.08153177 0.0532641 -0.05642755 0.15497532