0.0571063 -0.010071062 -0.042354837 -0.018178225 0.03402975 -0.003634279 -0.12162469 0.013699616 0.011247683 0.038535576 0.029995548 -0.025755657 0.005574665 -0.011329715 0.046284642 -0.10441567 0.0547708 0.069279864 -0.0940673 -0.0092071425 -0.023744691 0.063161924 0.14655496 0.01684838 0.0020648392 0.0039319363 0.045927785 0.0661697 0.06576708 0.12448901 -0.023485519 -0.007548992 0.020805722 -0.011024348 -0.014220949 -0.01811711 0.06481189 0.024539072 0.048639327 -0.044272933 0.085573435 -0.06851044 0.0052448623 0.010475847 0.019234912 0.028473884 0.007444964 0.05631975 0.08591261 0.013437083 -0.023225874 -0.013230921 0.0028354314 0.105436906 -0.097965054 0.0032434429 0.0018718437 0.045170546 -0.028854603 -0.009468319 -9.856657E-4 -0.079191715 0.04791441 -0.018347392 0.023648297 0.05116072 -0.03183107 0.054296937 -0.106739916 0.022765584 0.01979689 -0.025206018 -0.0046164026 -0.093419515 0.13791032 0.002979241 0.008498249 0.02035191 0.023258785 0.015097894 -0.0650769 -0.014377032 -0.027848586 -0.013327489 -0.01868013 0.019746613 0.079448156 -0.05180621 0.025543313 -0.07329882 -0.034849174 -0.03971446 0.02284214 0.008392936 -0.023061363 0.013978713 -0.020047467 0.07716811 0.024025684 0.047663935 -0.114710905 -0.0030447186 0.030015245 -0.05339925 0.11309113 -0.055915922 0.038568918 0.04809776 -0.023670588 -0.07484745 -0.07752818 0.01742922 -0.050074123 0.038600262 0.016270958 -0.035250638 0.060825054 0.10577253 0.057404414 0.03328245 -0.043399874 -0.06614544 -0.035460684 0.12096293 -0.011441643 0.01350006 -0.0031391352 -0.06699842