0.071533464 0.01857058 0.05796544 0.0134938145 -0.035689425 -0.0048421826 -0.015823545 -0.0052925106 0.027173286 -0.042500094 0.149213 -0.0592963 -0.0618143 0.026489908 -0.039887216 -0.038525965 0.07025402 0.06996336 -0.08606423 -0.055802546 0.07779922 0.1456072 0.13802058 0.054546416 0.009742035 -0.095402434 0.008245919 0.066100985 0.037533246 0.09674568 -0.04841558 -0.050074857 0.08671263 -0.010756909 0.1022488 0.15730625 1.3007093E-4 -0.027445449 0.020089544 0.040683415 -0.0137567315 -0.12952307 -0.052163847 0.046363655 -0.004941007 0.09235788 0.07660749 0.098953396 0.013791977 -0.011051344 0.03963532 0.22197539 0.11986996 0.018446216 -0.028955588 0.08217562 0.0797552 0.11413943 -0.0036181144 0.029290358 -0.08551193 0.011977461 0.0649583 0.12187465 0.041340064 -0.024681967 -0.0018422471 0.11340181 0.01775581 -0.11746437 0.13895725 0.044471107 0.15405665 -0.062180694 0.06967229 0.042841252 -0.16730243 0.037273873 -0.05369666 0.12301156 0.05867369 0.052047946 -0.11800256 0.015302922 -0.04164954 0.039319318 0.05506021 0.09451942 0.08888855 -4.7501564E-4 -0.025684448 0.028844649 -0.029879441 0.09062762 0.011225511 -0.08920615 0.080661066 0.01953407 0.10575981 0.11573478 -0.07441279 0.016400345 0.14412297 0.020415263 0.08094243 -0.025119375 -0.059648063 -0.04826054 -0.036280192 0.02790397 0.05414133 0.043180626 0.05600504 0.06578661 0.17714986 0.0903458 -0.055295963 0.036147613 0.024657022 0.014561851 0.16845977 -0.043790102 -0.031315546 0.062591724 0.025399711 0.009947302 0.07290182 0.07826366 0.14109297 0.010731158 0.0032424456 0.050551854 0.13753934 0.023309346 -0.18239205 -0.03599442 -0.037822142 0.113248795 0.024166724 0.055722713 0.12554719 0.05636662 0.11577724 0.12670529 -0.013668567 -8.4630627E-4 -0.045805413 0.1874141 0.109283336 -0.10089605 0.038252972 -0.014745447 0.04757582 0.19296944 0.13646093 0.08935253 0.0064017954 -0.116492674 0.009856653 0.027560635 0.14816314 0.09307915 0.05911548 0.09047673 -0.030736944 0.1249752 0.008460356 0.074249364 0.044881582 -0.08276188 0.06333528 -0.028227728 0.06570325 -0.013528229 0.0398959 -0.01801895 -0.052958373 0.16444352 0.2065308 0.15540713 -0.13419901 0.05033433 0.105250634 0.114778705 0.044258844 0.07251274 -0.013004429 -0.066057906 0.08605004 0.031988945 0.02759779 -0.08946314 0.034166537 -0.0034640417 0.07139452 -5.509737E-4 0.1061544 0.13409673 0.074506976 0.11091936 0.117354855 0.003898554 0.0070131747 0.09919086 -0.10854827 0.01811098 0.1152127 0.03238193 0.001651095 0.09753199 0.009903724 0.07455841 0.0643072 0.06850202 -0.023877347 0.0633807 0.031253137 0.034667075 0.07670211 0.14317171 -0.06436727 -0.065099135 0.06650044 0.0046920474 0.12195451 0.035201315 -0.014589461 0.021210702 0.042239472 0.10553871 0.116232194 0.0036579678 0.07068081 0.12771209 0.025373738 -0.02882212 0.05216999 -0.041750465 0.03021557 0.0488648 0.0037152395 0.04903604 -0.101996794 -0.010661485 0.10466317 0.06255359 0.005030308 0.12956367 0.027759068 -0.015946459 -0.09721044 -0.025407134 0.07868513 0.12827645 0.029057566 -0.042655658