0.009297546 -0.017735219 0.065111734 0.004932132 -0.031040752 -0.00806623 -0.07233475 -0.012616236 0.039873194 -0.0032269177 -0.02357069 -0.09990712 0.003942209 -0.022056287 0.006368895 -0.027432606 -0.01644584 0.011959181 -0.056042407 0.019789498 -0.05704039 0.001622529 -0.0013362834 -0.02914832 -0.04109445 0.040934045 -0.012308914 0.012563777 -0.013846591 0.026319161 -0.013115661 -0.04230507 0.0089970995 0.006861627 -0.033414472 -0.07955408 -0.029816357 0.014867713 0.002151669 0.036972124 -0.02213829 -0.07278509 -0.041653253 0.033285525 0.008284945 0.068336494 -0.010339977 -0.02317963 0.033405937 -0.047000982 -0.036962744 -0.020043597 0.018820591 0.04333825 -0.025441827 -0.038324855 -0.0033407141 -0.019709365 -0.04415315 -0.01777851 -0.006653319 -0.036174815 0.0018907122 -0.011784098 -0.02119996 0.011340486 0.006890876 -0.02112145 -0.0767714 0.055960543 -0.00854297 3.6553043E-5 0.007727965 -0.006957799 -0.025118321 -0.02789031 -0.042572036 0.037169814 -0.0017526234 0.024567945 -0.021596355 -0.029379962 -0.016172843 -0.04914074 -0.065930136 -0.054239642 0.016283926 0.067253925 -0.008745992 -0.0132640945 -0.068322025 -0.03873752 -0.037438482 0.002480153 8.329884E-4 -0.066332124 -0.03199128 0.053891346 0.026705284 0.024418786 -0.01612395 0.03899345 0.009354181 -0.033807043 0.0062781037 -0.052127194 -0.038087733 -0.011954739 -0.051995452 -0.031025594 0.032718267 0.031774584 0.011589707 4.0042974E-4 0.0554093 -0.022484774 0.0021740329 -0.009350887 -0.010327555 0.034127243 -0.022972811 -0.02144386 -0.04955216 -0.0069329343 -0.05455203 -0.034459688 0.056344967 -0.04517642 0.06745179 -0.03327922 -0.04491265 0.018230133 0.010764015 -0.035072275 -0.032800116 -0.016572522 -0.03646409 -0.013856162 -0.0028871782 -0.02446145 0.016933575 0.042327344 -0.0059268703 -0.02343763 0.026466064 0.02178259 0.048182543 -0.012714375 0.0050748438 -0.01477972 -0.050083414 0.009702378 -0.009529861 0.0025086852 0.074785255 0.019960234 0.002586261 -0.0024562075 0.02110915 -0.0066180583 0.027528955 0.018196164 0.017947737 0.019862585 -0.029991498 0.042154733 -0.057785176 -0.074453324 0.0055442443 -0.026935427 -0.004263345 -1.664774E-4 -0.059181646 -0.051956225 -0.014682125 -0.038951457 -0.039166622 -0.012613023 0.049475506 -0.021837147 -0.009324231 -0.006606766 0.015113925 0.030194888 0.014236148 -0.027868459 -0.026743121 -0.018240426 0.035178203 -0.052448153 0.062758125 -0.021045456 -0.025663983 0.01795016 0.03057087 -0.0028603869 -0.042781834 0.033486135 -0.0032844795 0.026827188 0.0433081 -0.03954931 -0.02235867 -0.04950196 0.0057099774 0.007356205 -0.007656653 0.036010046 0.047708258 -0.0069708414 -0.01784731 0.06008186 0.0069194264 0.0076305913 9.284013E-4 0.015889585 -0.0042361226 -0.0066977907 0.0708386 0.01855551 -0.04794705 -0.047645576 0.03198307 0.006526233 -0.010409779 -0.0075040027 -1.2423859E-4 0.0407192 0.027681664 -0.032707635 -0.031458944 0.012371762 -0.03770131 0.010529826 -0.036980312 -0.028450476 -0.023199355 -0.037067782 -0.007430421 -0.038842116 0.031740032 -0.025207186 -0.029379757 -0.025949284 9.6649484E-4 -0.023859339 -0.030473232 -0.023604443 0.04835999 -0.020553002 -0.03589818 -0.04333459 -0.015545146 0.014512068 -0.021079704 -0.04208575