0.046448458 -0.07144679 0.021960845 0.018909184 -0.048487425 -0.05651619 -0.091337465 -0.08263002 0.029441131 0.010326763 -0.05323534 -0.007910444 0.043201618 -0.05335153 -0.028854381 -0.014076719 -0.05661681 -0.031759374 0.025446123 -0.0486137 -0.08719356 -0.04061417 0.03254319 0.0687262 0.020474749 -0.07389986 0.018287314 0.0039557563 0.14859559 0.01847536 -0.020564126 -2.3620346E-4 0.0687481 0.018547285 0.02284707 0.018734885 -0.0030793925 0.06020902 -0.06977626 -0.017561324 0.0013270937 0.048742987 -0.015834022 0.0014433529 0.073262915 -0.01700602 -0.017978566 -0.01749 0.00930204 -0.12616144 -0.019828988 0.04966343 0.0158314 0.06441032 -0.00478903 -0.06235694 -0.015176516 -0.008250487 -0.06406282 0.065625936 -0.004583448 -0.0140889175 -0.029631529 -0.03567314 -0.037435412 -0.03359954 0.051531754 0.14766043 -0.055807292 0.047763497 -0.040697366 0.009191255 -0.04418952 -0.0820315 -0.040186502 -0.009580652 -0.050632533 -0.013127739 0.050371878 0.076715365 0.0039470214 -0.0403897 0.016991988 -0.02807864 -0.0020969557 -0.07832672 0.09320637 0.033009402 0.024437439 0.007446839 -0.07238155 0.10821729 -0.036095507 0.06967403 -0.0050871335 0.012825629 0.060983792 0.035204325 0.031582106 0.078847826 -0.020600535 0.008754178 0.094328664 -0.0067380066 0.043597054 -0.08064466 -0.056374446 -0.0051380834 -0.028433328 -0.041267302 -0.011683065 0.09362103 -0.019015836 0.06395995 0.023439344 0.02304792 -0.046780616 0.07442309 0.058077745 0.2123516 0.016589932 0.008106003 -0.072638035 0.0132182455 0.03293077 0.076680765 -0.06463499 0.0036034784