0.09970551 0.029182805 0.027958896 0.03885467 -0.035511237 0.08130202 -0.098141 -0.04630482 -0.014189616 -0.002864624 0.046627305 0.008581072 0.06496445 -0.008973557 -0.0468611 0.061860505 0.04960473 0.06802897 -0.026411837 0.05927143 0.0027991426 0.12055408 -0.0063006524 0.06420381 -0.0019618075 -0.07994556 0.06351246 0.18367876 -0.09276591 0.023840288 0.016286891 0.006413568 0.12212521 -0.034571867 -0.018986015 0.051434625 0.031732358 -0.022132346 0.04196799 0.016864674 0.01852172 -0.037026033 0.089936994 0.15391618 0.02882883 0.01355626 -0.025743429 0.09775411 0.05478496 0.01892619 0.030738315 0.091200456 0.14937422 0.100313485 -0.055548146 0.10768339 0.044939652 0.03136184 -0.03786828 0.034233257 0.10076571 0.052510597 0.0910731 0.0747962 -0.058691017 -0.047136493 -0.046750765 0.07137937 -0.11259666 -0.032026578 0.102704525 0.12017816 0.11153326 -0.10604615 0.11021693 -0.009310193 -0.18797857 0.12910277 0.06769949 0.053993843 -0.040229585 0.04159271 0.0076825535 0.016773809 -0.114114605 0.02535187 0.055556316 0.09267975 0.0065807635 0.01584268 -0.018045187 0.12341507 0.0013976281 0.095834054 0.007741797 0.10083897 0.10447609 0.028852489 0.08183248 0.20860241 -0.03653644 -0.06996153 0.111465186 -0.09436031 0.03357816 -0.019194683 -0.044403106 0.053282734 0.068419725 -0.05728719 -0.07754259 -0.061601732 -0.04055428 0.19088978 0.032602806 0.05314554 0.05120544 0.049452115 0.06725134 0.07508082 0.14712882 -0.13071337 -0.0084844 0.037732042 -0.086291775 0.10635487 0.023336146 9.9757046E-5 0.09937783 -0.05458261 -0.014709131 0.038335368 0.14728275 -0.016240606 -0.0788678 -0.14905806 0.046557676 0.008034375 0.14089261 -0.015961953 0.08780941 -0.005395298 -0.046717457 0.13471416 -0.015895493 0.10377044 0.030159766 0.14306776 0.15735085 -0.007990821 0.041404504 -6.1910733E-4 -0.009193233 0.085698746 0.11162286 0.09139719 0.0046971072 0.03966647 0.06748808 -0.035945952 0.1077281 0.11495021 0.07620849 0.03963344 -0.09230523 0.046353064 0.008674868 0.09324309 0.07900655 3.0007432E-4 0.009639863 -0.024121257 0.040646628 -0.09010694 0.061705347 0.0028433015 0.10011392 0.107554756 0.089426495 -0.008152764 0.00466574 0.068137534 0.10495534 0.13644457 0.06537618 0.05997234 -0.061167922 0.14105767 0.020346932 -0.0049049268 0.044201396 0.05650937 1.2598603E-4 0.08549311 0.07848454 -0.033186324 0.061009936 0.13090062 0.12653115 0.013432696 -0.05752138 -0.03510709 0.058231834 0.11366474 -0.047592487 -0.027311876 0.030136412 0.08070715 0.06881779 0.12497202 -0.07726883 0.16263819 0.03128469 0.048514407 -0.04346196 0.08512088 0.012584485 0.0133364815 0.100482985 0.07159049 -0.08862465 -0.052540455 0.12778497 -0.008840713 0.1239682 0.16717234 0.015544283 -0.01468437 -0.02908444 0.11598342 0.077606596 -0.087667905 0.08518692 0.080355205 0.10444036 -0.081445895 -0.022805937 0.025455909 0.057251234 0.08620928 -0.04984464 -0.014296988 0.015389908 0.13848892 0.030692272 -0.08246012 0.040811814 0.08444267 0.03367561 0.044328716 -0.0058652675 0.032934647 0.09927606 0.098601975 0.046295617 -0.056174845