0.017329844 -0.072586365 -0.053505447 7.515824E-6 -0.013899265 -0.035229176 -0.054742534 -0.08668954 0.02998236 0.044268098 0.019654151 0.007900478 -0.0011774279 0.010256488 0.032814525 -0.007820036 -0.02396274 -0.017793804 -0.029589454 -0.017956218 0.011837713 0.014077181 0.05385382 0.008395207 0.030114846 -0.039780542 0.06880085 0.04633562 -0.023027632 -0.0015376152 -0.0547213 -0.031401105 0.0010480656 0.031120755 0.04594223 -0.0055926153 -0.03369475 -0.038041145 0.07533088 -0.026335474 -0.08884122 -0.0037877879 -0.030848555 -0.01205325 -0.028004676 0.09601855 0.042031627 -0.00450481 0.0077335816 -0.051037963 -0.11746076 0.057564806 0.053199086 0.011670774 -0.0172676 0.030276239 0.07731431 0.04595164 -0.056661226 0.040356956 0.011401027 -0.0017550533 -0.033288877 -0.039501265 0.0015703806 0.020150814 -0.03205526 0.01155719 -0.0062435246 0.047152944 -0.05398129 0.064887874 0.04074884 0.012740596 0.005301455 -0.066189565 -0.024312306 0.012085284 -0.025944475 -0.017573178 0.0024627096 -0.032099314 0.011045452 0.004652603 -0.015945721 -0.026293064 0.06874382 0.038862128 0.06739307 -0.011219204 -0.024703464 0.062380966 -0.058461588 -0.047153458 -0.02169118 0.018879693 -0.04259879 -0.0017417711 0.01692713 0.014501671 -0.075547695 0.015210908 0.024448546 0.013834722 -0.019998746 -0.061005823 -0.030506123 0.0047624637 -0.021223627 0.018020378 0.047899652 -0.002555027 0.0052724336 0.0054571424 -0.06618664 -0.0098320795 0.065855235 -0.027583055 0.033238314 0.07008615 0.02766174 -0.017525101 0.017855845 -0.026692038 -8.6308556E-4 0.009630885 0.018372841 0.043911513 0.03603471 -0.045514427 -0.015114646 0.053446524 0.076297775 -0.012087844 0.018001698 -0.043144222 -0.021740386 -0.0023632965 -0.0050180503 -0.03683998 0.029888552 0.00783246 -0.0230905 0.0067300247 -0.008933235 -0.037638217 -0.0013354946 -0.040811695 0.018196808 -0.07004439 -0.019417379 -0.022476988 0.0017431477 0.016731074 -9.880546E-4 0.0065819183 0.13087007 -0.051225197 0.047750693 0.020277454 -0.054388396 0.038343836 -0.011116222 -0.020306975 -0.023922125 0.022434514 0.009528312 -0.016440501 -0.015435681 -0.029791152 0.020457884 0.024220929 -0.02243999 -0.029970977 -0.006294424 -0.045109354 0.034242786 0.026058158 0.038836434 -0.0069412277 0.05975878 -0.011785184 -0.019279884 -0.0066717626 -0.041965596 -0.026808986 0.056584954 0.11003022 -0.0033642782 -0.04087753 -0.004865913 -0.020679062 0.033327974 0.026924983 0.0014205845 0.017092971 0.041951396 0.029508406 6.638923E-4 -0.028332116 -4.1914548E-4 0.027267896 -0.0017385464 0.034110017 -0.0025486052 -0.07294955 0.018220523 -0.016540045 -0.03503905 -0.018202161 -0.045759372 0.037493646 -0.0232962 0.047322806 -0.015023144 -0.013040534 -0.079529405 -0.02078691 0.075322285 0.014410973 -0.050938614 0.016167266 0.022570642 -0.037903663 -0.02466445 -0.0013478881 0.026675476 -0.010456677 -0.0089156255 2.843693E-4 -0.044716228 -0.03228372 -0.03255895 0.030598275 -0.025926996 -0.047215693 -0.052459747 9.987453E-4 6.219883E-4 0.02331239 -0.054674406 -0.02458185 0.028673226 -0.039394855 0.020597214 -0.069292925 -0.029362323 0.042817425 -0.016853647 0.02534632 0.01265214 -0.018439658 0.008954372 0.03905504 -0.07332927 -0.046569444