0.09073067 0.050439406 0.055135038 -0.050871376 0.029229246 -0.010655004 -0.06585111 -0.069476046 0.046132505 -0.08746121 0.14702694 -0.0754275 0.07164913 -0.089628376 0.025590563 0.049770895 0.1899484 0.072913155 -0.05993041 0.03214058 0.041201416 0.0043649743 -0.004577582 0.17782605 0.18328628 0.01917153 -0.012202435 0.18866655 0.1444321 0.1397906 0.028042842 0.03524092 0.1720971 0.03305715 -0.0055950843 0.117667995 0.020165775 -0.1000261 -0.108919 0.09463545 -0.07481067 0.017677622 0.022994788 0.028100241 0.11443683 0.026896313 0.14911726 -0.042582203 -0.0799733 -0.17221054 -0.11264867 -0.013382887 0.17537573 0.1692629 -0.05411842 0.12781964 0.07760485 0.19098759 -0.18525063 0.086737156 -0.052895162 -0.0031072248 0.13677871 0.06166529 -0.04801442 0.037287835 0.18020411 -0.0028220157 0.09333894 0.18883196 -0.0016899069 0.026509771 0.17343785 -0.10744277 0.1595263 -0.12714447 0.037356965 0.0627349 0.10263406 0.2007125 0.027172096 -0.0018674895 -0.017200967 -0.08047467 0.01778365 -0.041190576 0.086311705 0.09629551 0.10959219 0.04966921 -0.16942266 0.07695981 -0.04101111 0.13498737 -0.040130697 0.04349588 0.12391521 0.12087683 0.1598097 -0.008221958 -0.060068954 -0.0011724363 0.26377496 -0.00976981 0.15222111 -0.07452751 -0.0010281879 0.14852147 0.05380904 0.005027518 0.034442857 0.12375527 0.01315537 0.23849319 0.097593896 0.013274686 0.023518194 0.03597103 0.18886393 0.11979694 0.08570615 0.13017249 -0.0480557 -0.0859565 -0.027353719 -0.014915028 0.23801391 0.03347962