0.031327456 -0.018831136 0.02265592 0.015861344 -0.017115865 0.018500056 -0.0101802675 -0.004103835 0.04630069 0.0010001686 0.029327592 -0.021224253 0.0017441182 6.5101695E-4 -0.020774955 -0.028308105 0.025812974 0.0163185 -0.0043945075 -0.014437 0.016111407 0.04960587 0.017523138 0.0035765395 0.015684199 -0.015606144 0.042852636 0.03582655 0.015778815 0.00819389 -0.016231218 -0.005903391 0.02461595 -0.010377458 0.014269836 0.012829019 0.0014820374 0.019567326 -0.019197851 0.02399467 0.0014023652 -0.0076511283 0.002519206 0.008040553 0.0053956546 0.031318404 0.00347857 0.02248253 0.014156284 0.04231725 -0.010365473 0.046885546 0.029856155 0.038631555 -0.018727379 0.013456397 0.00483861 0.064622596 -0.0064218394 0.016226588 0.027641252 -5.012435E-4 0.020342145 0.027946483 0.005357565 0.0021430799 -0.037963632 0.027742788 -0.0024826662 -0.004531983 0.030030245 0.025275607 0.02726688 -0.0058787474 0.023199623 -0.01287037 0.0013401433 0.01895704 0.045049544 0.020889884 0.014542493 -0.018966135 -0.007857948 0.021328839 -0.013416845 -0.02515007 0.029371817 0.032125786 0.018160727 -0.005558862 -0.02835093 0.015770806 -0.013456218 0.03478209 -0.006463864 0.016394693 -0.009453093 0.05668787 0.0037628792 0.028595077 0.014230945 0.0032036663 0.019253628 -0.0022006682 0.01610869 -0.026392065 -0.010271729 0.013950972 -0.0064546615 -0.015835736 -0.0043905834 0.0047673625 -0.0026536435 0.03966036 0.040068418 -0.0054151956 -0.003635425 0.006458414 0.005155807 0.046980605 0.061088737 0.008991584 -0.014042964 0.041068673 0.003176269 0.020102458 0.060185697 0.048647422 0.015711902 -0.0031173145 0.010635045 0.03177917 0.02969608 0.0014865444 -0.010923423 -0.017276594 0.003707051 0.031168781 0.013723231 0.006848893 0.02133879 0.0063261115 0.007248998 0.01009226 0.01203417 0.04827252 0.055977385 0.056614928 0.023138823 0.017170656 0.007598966 0.036055997 0.00893078 0.030236566 0.019626975 -0.0012608019 0.019642934 -0.0061208284 0.02755592 -0.014584294 0.011077029 0.0143847 0.022537936 0.024398243 -0.010907939 0.010275962 -0.010819543 0.0051668156 0.029628208 -0.030509157 -0.032263063 -0.0012416347 -0.018145721 -0.019403564 0.003414843 -0.005970677 -0.0025449346 0.014932922 0.066779986 0.026973061 -9.513613E-4 0.013189948 0.02434896 -7.6143374E-4 -0.012922788 0.023501348 -0.0139820725 0.02150359 0.030078327 -0.024922278 0.042628378 -0.012498985 -0.009199241 -0.0093995435 0.028621472 0.013200514 0.047018476 0.005257617 0.01806315 0.015808398 0.0070833885 0.03947783 -0.0103346305 0.038467277 -0.0010315392 -0.0010536016 0.011945926 0.042493664 -0.011435596 0.02126585 0.01144298 0.038461756 0.040446304 0.03350138 -0.0063809194 0.041470967 -0.014125438 -0.0059012496 0.02238075 0.059482902 -0.019514946 0.009379615 0.05876496 -0.016798897 0.03780929 0.04543093 0.028457541 -0.0031325428 0.006809678 0.027111378 0.02678076 -0.010729607 0.05657604 0.005831919 0.026867526 -0.0022663644 -0.039464384 -0.011913704 0.018604625 0.0011805643 -0.03475382 -0.0179382 -0.015513752 -2.8654007E-4 0.004896173 -0.0052382476 -0.012630957 0.031983085 0.01874939 -0.00845692 0.011939883 0.025798542 0.008238712 0.023468621 0.002201182 0.0045837173