0.08384633 -0.03680958 0.0326093 0.0045079193 -0.025989844 -0.0075178654 -0.031082723 -0.032904863 0.019909775 -0.018468749 0.030104704 -0.03956257 0.005855257 -0.001928523 -0.03208111 -0.03613568 0.011993424 0.026881976 -0.014029757 -0.005777057 -0.015922172 0.04316774 0.042663362 0.01791567 0.027698094 -0.022537295 0.04263201 0.055845443 0.00934587 0.008181625 -0.020447217 -0.024985405 0.03267446 0.0028241482 0.046753436 0.020982215 -0.01102946 7.748463E-4 -0.0027111259 -0.017454615 -0.036361884 -0.0279234 -0.0035415995 0.017387422 0.028104529 0.045069695 -0.004850951 0.021274813 0.04330608 -0.038393106 -0.023128249 0.04815855 0.038561143 0.083460554 -0.023559332 0.0025584358 0.025010277 0.0124169225 -0.03933956 0.05721016 -0.008169964 -0.0028221474 -0.013123564 0.011497077 -0.00687204 0.009095635 0.0046227733 0.05584271 0.0072280145 0.027103169 0.020223444 0.023706188 0.030651517 0.0011331224 0.06781816 -0.03398637 -0.031329162 0.044064492 0.053810984 0.021774655 -0.012527583 -0.0366549 -0.03872618 -0.003019837 -0.0205992 0.0019456493 0.016427523 0.050167352 0.015659442 -0.03535175 -0.004992758 0.033013746 -0.012830124 0.082491696 -0.010868923 0.01824516 -0.012447125 0.056217857 0.039732546 0.056777194 -0.00940721 0.033140242 0.046794318 -0.0040521855 0.01770114 -0.017206104 -0.022404283 0.018830437 -0.0034818868 -0.001129089 0.025135139 0.025665978 -8.331855E-4 0.03718317 0.02705712 0.01224492 0.0073729944 0.047390442 0.0130013265 0.046312902 0.044999644 -0.012158083 -0.014539493 0.028804451 0.0039016255 0.015033674 -0.00163952 0.016255442