0.08532553 0.010274625 0.058370102 0.013570392 0.010884545 0.019929035 -0.0035881244 -0.03501326 0.05111484 0.07001024 0.13081439 0.037611496 0.046963226 0.063044555 -0.0181315 -0.026767284 0.06151676 0.053762533 0.028173855 -5.1139883E-4 -0.024360904 0.07301462 0.058007006 0.060624056 0.0888021 -0.02134069 0.05573997 0.11295817 0.112948045 0.10460962 -0.016782986 0.009252871 0.08409614 -0.017968392 0.048473176 0.05267051 -0.011009763 0.01709481 0.036301825 0.03572189 -0.012489718 -0.0134227825 0.02515121 0.038841218 0.018535854 0.02877852 -0.024271103 0.06028323 0.05347765 0.025860215 -0.0054773064 0.07871133 0.055661716 0.06628929 0.0034435617 0.045477618 0.054147027 0.121255204 -0.012242019 0.063075244 -0.0047311606 0.04503701 0.041038197 0.09572877 -0.010243853 0.049658876 0.009656049 0.09809525 0.027572175 0.038628515 0.024255507 0.047812372 0.10303475 -0.0045842975 0.055138327 -0.017580483 -2.671507E-4 0.08551683 0.054170992 0.081836805 -0.020605521 -0.009351124 -0.017474659 0.009820396 -0.022272035 3.2669678E-4 0.046869833 0.080165364 0.062815726 0.032095466 -0.002178506 0.09102914 -0.015374866 0.11072772 -0.0030471985 0.050005857 0.037200037 0.05069011 0.09407651 0.06753956 -0.00198698 0.056538567 0.10655513 0.020096874 0.10640621 -0.027017124 -9.29962E-5 0.14037965 0.008588727 0.050667126 -0.015812688 0.020449178 0.024747355 0.08568272 0.030514108 0.020117005 -0.031856567 0.050457843 0.09925362 0.06961886 0.06255098 0.025943214 -0.003326367 0.03721257 6.9887436E-4 0.024237933 0.050320707 0.049132347